<?xml version="1.0"?>
<opencv_storage>
<stage2>
  <maxWeakCount>7</maxWeakCount>
  <stageThreshold>-3.1091105937957764e-01</stageThreshold>
  <weakClassifiers>
    <_>
      <internalNodes>
        0 -1 1564 1.2611342966556549e-01</internalNodes>
      <leafValues>
        -7.3684209585189819e-01 8.1818181276321411e-01</leafValues></_>
    <_>
      <internalNodes>
        0 -1 1442 1.5900861471891403e-02</internalNodes>
      <leafValues>
        -9.3941324949264526e-01 3.0287960171699524e-01</leafValues></_>
    <_>
      <internalNodes>
        0 -1 5579 4.3148905038833618e-02</internalNodes>
      <leafValues>
        -7.3960518836975098e-01 4.6436956524848938e-01</leafValues></_>
    <_>
      <internalNodes>
        0 -1 5756 2.2833440452814102e-02</internalNodes>
      <leafValues>
        -7.1842503547668457e-01 5.4111003875732422e-01</leafValues></_>
    <_>
      <internalNodes>
        0 -1 1493 2.1637111902236938e-02</internalNodes>
      <leafValues>
        5.6247484683990479e-01 -6.7424762248992920e-01</leafValues></_>
    <_>
      <internalNodes>
        0 -1 2964 1.9014548510313034e-02</internalNodes>
      <leafValues>
        -8.8734656572341919e-01 4.2800226807594299e-01</leafValues></_>
    <_>
      <internalNodes>
        0 -1 5166 3.5382412374019623e-02</internalNodes>
      <leafValues>
        -6.0588890314102173e-01 6.2335222959518433e-01</leafValues></_></weakClassifiers></stage2>
</opencv_storage>
