<?xml version="1.0"?>
<opencv_storage>
<stage3>
  <maxWeakCount>7</maxWeakCount>
  <stageThreshold>-1.2331889867782593e+00</stageThreshold>
  <weakClassifiers>
    <_>
      <internalNodes>
        0 -1 2344331 -4.5489668991649523e-06</internalNodes>
      <leafValues>
        1.2062256783246994e-01 -6.7346936464309692e-01</leafValues></_>
    <_>
      <internalNodes>
        0 -1 551460 -1.1205366253852844e-01</internalNodes>
      <leafValues>
        5.9849596023559570e-01 -2.9915192723274231e-01</leafValues></_>
    <_>
      <internalNodes>
        0 -1 408962 -5.3865849971771240e-02</internalNodes>
      <leafValues>
        5.6959038972854614e-01 -2.6516056060791016e-01</leafValues></_>
    <_>
      <internalNodes>
        0 -1 2304111 3.9191713767650072e-06</internalNodes>
      <leafValues>
        -4.3624547123908997e-01 3.8829934597015381e-01</leafValues></_>
    <_>
      <internalNodes>
        0 -1 338051 2.3115701042115688e-03</internalNodes>
      <leafValues>
        2.1867062151432037e-01 -7.4405449628829956e-01</leafValues></_>
    <_>
      <internalNodes>
        0 -1 1760894 7.1513675153255463e-02</internalNodes>
      <leafValues>
        -3.5832253098487854e-01 4.7577518224716187e-01</leafValues></_>
    <_>
      <internalNodes>
        0 -1 8486 -1.6681649722158909e-03</internalNodes>
      <leafValues>
        6.6869282722473145e-01 -2.4405452609062195e-01</leafValues></_></weakClassifiers></stage3>
</opencv_storage>
