<?xml version="1.0"?>
<opencv_storage>
<stage8>
  <maxWeakCount>10</maxWeakCount>
  <stageThreshold>-1.2275106906890869e+00</stageThreshold>
  <weakClassifiers>
    <_>
      <internalNodes>
        0 -1 557079 8.9604921638965607e-02</internalNodes>
      <leafValues>
        -4.1681572794914246e-01 8.0487805604934692e-01</leafValues></_>
    <_>
      <internalNodes>
        0 -1 455239 -4.3462555368023459e-06</internalNodes>
      <leafValues>
        3.2147270441055298e-01 -3.3024001121520996e-01</leafValues></_>
    <_>
      <internalNodes>
        0 -1 2330525 3.1137361656874418e-04</internalNodes>
      <leafValues>
        1.5878282487392426e-01 -8.3312624692916870e-01</leafValues></_>
    <_>
      <internalNodes>
        0 -1 2254746 7.9959454014897346e-03</internalNodes>
      <leafValues>
        -1.9753557443618774e-01 5.9703856706619263e-01</leafValues></_>
    <_>
      <internalNodes>
        0 -1 4111 2.4685901589691639e-03</internalNodes>
      <leafValues>
        1.4471901953220367e-01 -8.8157486915588379e-01</leafValues></_>
    <_>
      <internalNodes>
        0 -1 228403 9.7578321583569050e-04</internalNodes>
      <leafValues>
        1.6646149754524231e-01 -6.6980612277984619e-01</leafValues></_>
    <_>
      <internalNodes>
        0 -1 2337239 3.9092269616958220e-06</internalNodes>
      <leafValues>
        -4.5939928293228149e-01 2.6742598414421082e-01</leafValues></_>
    <_>
      <internalNodes>
        0 -1 1009308 2.8145834803581238e-02</internalNodes>
      <leafValues>
        -2.0103053748607635e-01 6.7254817485809326e-01</leafValues></_>
    <_>
      <internalNodes>
        0 -1 1344795 -7.3097422719001770e-03</internalNodes>
      <leafValues>
        5.2468377351760864e-01 -2.8845354914665222e-01</leafValues></_>
    <_>
      <internalNodes>
        0 -1 1206482 3.4514360595494509e-04</internalNodes>
      <leafValues>
        2.3769417405128479e-01 -5.7365602254867554e-01</leafValues></_></weakClassifiers></stage8>
</opencv_storage>
