<?xml version="1.0"?>
<opencv_storage>
<stage12>
  <maxWeakCount>11</maxWeakCount>
  <stageThreshold>-1.2127373218536377e+00</stageThreshold>
  <weakClassifiers>
    <_>
      <internalNodes>
        0 -1 640522 2.1177347749471664e-02</internalNodes>
      <leafValues>
        -4.5075756311416626e-01 5.2777779102325439e-01</leafValues></_>
    <_>
      <internalNodes>
        0 -1 2342357 -7.4489580583758652e-06</internalNodes>
      <leafValues>
        3.1463319063186646e-01 -3.7558814883232117e-01</leafValues></_>
    <_>
      <internalNodes>
        0 -1 751371 -1.3149622827768326e-02</internalNodes>
      <leafValues>
        4.4170951843261719e-01 -3.6862733960151672e-01</leafValues></_>
    <_>
      <internalNodes>
        0 -1 9328 -8.8343920651823282e-05</internalNodes>
      <leafValues>
        4.8096930980682373e-01 -2.3310533165931702e-01</leafValues></_>
    <_>
      <internalNodes>
        0 -1 258411 5.6547007989138365e-04</internalNodes>
      <leafValues>
        1.4698535203933716e-01 -9.0105092525482178e-01</leafValues></_>
    <_>
      <internalNodes>
        0 -1 2330542 1.5276811609510332e-05</internalNodes>
      <leafValues>
        -4.8191136121749878e-01 2.4337857961654663e-01</leafValues></_>
    <_>
      <internalNodes>
        0 -1 2344512 1.4583120355382562e-04</internalNodes>
      <leafValues>
        2.2498972713947296e-01 -6.1319619417190552e-01</leafValues></_>
    <_>
      <internalNodes>
        0 -1 1424748 1.8280930817127228e-03</internalNodes>
      <leafValues>
        -2.7169400453567505e-01 6.1446458101272583e-01</leafValues></_>
    <_>
      <internalNodes>
        0 -1 342604 -5.6831659749150276e-03</internalNodes>
      <leafValues>
        5.7275247573852539e-01 -2.0941911637783051e-01</leafValues></_>
    <_>
      <internalNodes>
        0 -1 69373 -8.3461956819519401e-05</internalNodes>
      <leafValues>
        -6.5857768058776855e-01 2.0815342664718628e-01</leafValues></_>
    <_>
      <internalNodes>
        0 -1 2033478 2.9887068085372448e-03</internalNodes>
      <leafValues>
        -2.6740238070487976e-01 6.0459423065185547e-01</leafValues></_></weakClassifiers></stage12>
</opencv_storage>
