<?xml version="1.0"?>
<opencv_storage>
<stage14>
  <maxWeakCount>6</maxWeakCount>
  <stageThreshold>-1.1576312780380249e+00</stageThreshold>
  <weakClassifiers>
    <_>
      <internalNodes>
        0 -1 72974 604274695 -390053875 34820 1359269913 -800390517
        831029768 1342800075 -1605401853</internalNodes>
      <leafValues>
        -5.3696495294570923e-01 4.5595854520797729e-01</leafValues></_>
    <_>
      <internalNodes>
        0 -1 57474 -2006448085 206962692 1141084164 88215552 -1048565740
        1379991680 -2147440504 -499900288</internalNodes>
      <leafValues>
        -7.1761631965637207e-01 3.6880910396575928e-01</leafValues></_>
    <_>
      <internalNodes>
        0 -1 36830 1418019918 320127316 -2147482615 1522700493 147376531
        1359003787 -393584497 -1719606521</internalNodes>
      <leafValues>
        -5.3663724660873413e-01 5.6195789575576782e-01</leafValues></_>
    <_>
      <internalNodes>
        0 -1 29189 -1094989724 -285540356 -114969 1785921407 -8552675
        -8552578 -547496652 -1665270019</internalNodes>
      <leafValues>
        -4.9578267335891724e-01 6.2691879272460938e-01</leafValues></_>
    <_>
      <internalNodes>
        0 -1 64892 -556666798 -1592688448 -800980980 -260040381
        -2142699445 427843713 -2139094878 1234359171</internalNodes>
      <leafValues>
        -5.6206977367401123e-01 5.9810799360275269e-01</leafValues></_>
    <_>
      <internalNodes>
        0 -1 108991 -1765867601 -298008804 -4259841 -458637569 805306356
        1342177279 2130706407 -319889555</internalNodes>
      <leafValues>
        -5.1768714189529419e-01 6.6866713762283325e-01</leafValues></_></weakClassifiers></stage14>
</opencv_storage>
