<?xml version="1.0"?>
<opencv_storage>
<stage10>
  <maxWeakCount>6</maxWeakCount>
  <stageThreshold>-1.3070809841156006e+00</stageThreshold>
  <weakClassifiers>
    <_>
      <internalNodes>
        0 -1 81562 -802167322 1535595455 -1090523153 -146046482
        1476150199 2004873215 -268435481 1946138547</internalNodes>
      <leafValues>
        -4.2718446254730225e-01 5.8156025409698486e-01</leafValues></_>
    <_>
      <internalNodes>
        0 -1 65906 -770668280 134221966 1073778764 -1450923752 67295968
        968886275 671088916 797934315</internalNodes>
      <leafValues>
        -6.2549871206283569e-01 3.6868268251419067e-01</leafValues></_>
    <_>
      <internalNodes>
        0 -1 21321 -67010225 -1941503582 -1056403439 -1286242295
        1745695036 1342193946 -779894573 -215422112</internalNodes>
      <leafValues>
        -5.0313133001327515e-01 4.6674636006355286e-01</leafValues></_>
    <_>
      <internalNodes>
        0 -1 32921 -983621322 861110388 1073905679 403439745 1073873026
        1375838856 -2013199829 1870882846</internalNodes>
      <leafValues>
        -6.0756450891494751e-01 4.1051879525184631e-01</leafValues></_>
    <_>
      <internalNodes>
        0 -1 41779 1724848973 -1575974765 -2147450863 -1610239982
        -1073479061 -2063007744 -775913342 -741842364</internalNodes>
      <leafValues>
        -6.2324804067611694e-01 4.3591645359992981e-01</leafValues></_>
    <_>
      <internalNodes>
        0 -1 114081 -223612705 50757898 16781724 100671808 1074024987
        -1417117694 -1073561464 -2007068120</internalNodes>
      <leafValues>
        -5.7730418443679810e-01 4.8536470532417297e-01</leafValues></_></weakClassifiers></stage10>
</opencv_storage>
