<?xml version="1.0"?>
<opencv_storage>
<stage29>
  <maxWeakCount>6</maxWeakCount>
  <stageThreshold>-6.7144727706909180e-01</stageThreshold>
  <weakClassifiers>
    <_>
      <internalNodes>
        0 -1 4434 -1039368001 -1879048126 -2097086332 553689602
        1350893752 -1870659582 1073742024 -434585300</internalNodes>
      <leafValues>
        -5.2015352249145508e-01 4.5118734240531921e-01</leafValues></_>
    <_>
      <internalNodes>
        0 -1 120165 -570470433 517767082 -822083588 -1946493710
        -318800258 -167837708 1862107069 -432737172</internalNodes>
      <leafValues>
        -4.6308973431587219e-01 5.7284736633300781e-01</leafValues></_>
    <_>
      <internalNodes>
        0 -1 74681 1283929879 58779392 -805273588 -805109632 -1549770736
        1224736768 -2113912832 -87129580</internalNodes>
      <leafValues>
        -6.5033578872680664e-01 4.4659084081649780e-01</leafValues></_>
    <_>
      <internalNodes>
        0 -1 123300 -2065071744 -2144301056 16777233 403865984 537004041
        881328136 1082359944 -1063747520</internalNodes>
      <leafValues>
        -6.5021467208862305e-01 4.2746102809906006e-01</leafValues></_>
    <_>
      <internalNodes>
        0 -1 18537 -989854138 -2143256512 6 -780140287 536883240
        838860802 134219790 1174405769</internalNodes>
      <leafValues>
        -8.3066862821578979e-01 3.9685702323913574e-01</leafValues></_>
    <_>
      <internalNodes>
        0 -1 128602 -788405873 -2147311615 -2130706175 276873216
        1342226562 134217728 1610780680 -1799176190</internalNodes>
      <leafValues>
        -7.0292806625366211e-01 4.2643374204635620e-01</leafValues></_></weakClassifiers></stage29>
</opencv_storage>
