<?xml version="1.0"?>
<opencv_storage>
<stage13>
  <maxWeakCount>6</maxWeakCount>
  <stageThreshold>-6.8597638607025146e-01</stageThreshold>
  <weakClassifiers>
    <_>
      <internalNodes>
        0 -1 56076 -1023108658 420643076 17891330 126436353 -1459092573
        1250498690 2123 1795981354</internalNodes>
      <leafValues>
        -5.7510727643966675e-01 3.8709676265716553e-01</leafValues></_>
    <_>
      <internalNodes>
        0 -1 6375 570491407 697630722 1090539548 -2071457344 8388619
        -2069889016 -2004741719 -762671030</internalNodes>
      <leafValues>
        -6.7393893003463745e-01 3.7243899703025818e-01</leafValues></_>
    <_>
      <internalNodes>
        0 -1 14767 420508139 50647376 -1073741824 352347274 -1878458224
        276873642 -2013042533 1930082567</internalNodes>
      <leafValues>
        -6.0544317960739136e-01 4.3717864155769348e-01</leafValues></_>
    <_>
      <internalNodes>
        0 -1 126042 1141584607 -2004711424 83988517 -132612085
        -1870659581 1897930752 134785152 -1899044727</internalNodes>
      <leafValues>
        -5.3832763433456421e-01 5.1778787374496460e-01</leafValues></_>
    <_>
      <internalNodes>
        0 -1 82853 -938440361 67174534 1090717952 -1543471072 109521024
        -1736438770 -1039597568 1752378055</internalNodes>
      <leafValues>
        -6.7644673585891724e-01 4.1149067878723145e-01</leafValues></_>
    <_>
      <internalNodes>
        0 -1 46586 269298215 -1068879872 -2145386236 1217053185
        310903186 -1065353216 134357888 -2096486271</internalNodes>
      <leafValues>
        -6.7765402793884277e-01 4.3750885128974915e-01</leafValues></_></weakClassifiers></stage13>
</opencv_storage>
