<?xml version="1.0"?>
<opencv_storage>
<stage12>
  <maxWeakCount>6</maxWeakCount>
  <stageThreshold>-4.2145410180091858e-01</stageThreshold>
  <weakClassifiers>
    <_>
      <internalNodes>
        0 -1 128515 -610543745 -1333484797 69760 -1319763518 -268533757
        805306237 -65675 -554775298</internalNodes>
      <leafValues>
        -4.3581080436706543e-01 5.1298701763153076e-01</leafValues></_>
    <_>
      <internalNodes>
        0 -1 48948 138774119 991961735 73856 419741746 -863993470
        -486505854 270305355 734249122</internalNodes>
      <leafValues>
        -5.7902729511260986e-01 4.0804499387741089e-01</leafValues></_>
    <_>
      <internalNodes>
        0 -1 28720 -119303737 -1165426680 285312002 -1005977599
        1077951027 -385581054 1476430032 -183447550</internalNodes>
      <leafValues>
        -5.9133106470108032e-01 4.2132422327995300e-01</leafValues></_>
    <_>
      <internalNodes>
        0 -1 36089 -1996487893 402858377 -250592440 -238718700 436207907
        939556896 -1979135946 -83320496</internalNodes>
      <leafValues>
        -6.8893271684646606e-01 3.5103633999824524e-01</leafValues></_>
    <_>
      <internalNodes>
        0 -1 38876 -788424451 75874305 289427665 1074790400 -1582823400
        -1180696504 -1568634965 -1314858866</internalNodes>
      <leafValues>
        -4.8189032077789307e-01 5.9525042772293091e-01</leafValues></_>
    <_>
      <internalNodes>
        0 -1 103474 -2078804083 -1241083746 1098911745 -998076351
        -1870352251 -1943994359 -637481592 -1840893748</internalNodes>
      <leafValues>
        -5.9298729896545410e-01 4.9049264192581177e-01</leafValues></_></weakClassifiers></stage12>
</opencv_storage>
