<?xml version="1.0"?>
<opencv_storage>
<stage22>
  <maxWeakCount>6</maxWeakCount>
  <stageThreshold>-1.1365292072296143e+00</stageThreshold>
  <weakClassifiers>
    <_>
      <internalNodes>
        0 -1 115831 -698505553 -25727382 2147483391 -537460738 -16777481
        -1342504962 -4390924 -1896948232</internalNodes>
      <leafValues>
        -4.2589703202247620e-01 6.6795367002487183e-01</leafValues></_>
    <_>
      <internalNodes>
        0 -1 46523 1493173452 -1324281599 -2080373758 -1009774204
        411635843 1099038728 671301641 1990762632</internalNodes>
      <leafValues>
        -5.2192664146423340e-01 5.1825743913650513e-01</leafValues></_>
    <_>
      <internalNodes>
        0 -1 42103 84215052 252248450 4751496 -2112438272 34701953
        -1466957806 1477345449 178397994</internalNodes>
      <leafValues>
        -6.6257601976394653e-01 4.4694808125495911e-01</leafValues></_>
    <_>
      <internalNodes>
        0 -1 6156 54735711 1501565451 131341 545558912 805322986
        -2143222784 86089 -826019314</internalNodes>
      <leafValues>
        -6.3755768537521362e-01 4.9670058488845825e-01</leafValues></_>
    <_>
      <internalNodes>
        0 -1 46404 -805158777 -938475455 1342177364 1275068417
        -1065283578 1075904514 -939521904 -1056898871</internalNodes>
      <leafValues>
        -6.2491011619567871e-01 5.0942903757095337e-01</leafValues></_>
    <_>
      <internalNodes>
        0 -1 114874 1073860997 -1073643520 36 822116619 1073741963
        1115816066 -1055981559 -1997698740</internalNodes>
      <leafValues>
        -5.0744414329528809e-01 6.6265249252319336e-01</leafValues></_></weakClassifiers></stage22>
</opencv_storage>
